{"levels":[{"inputs":[0.1887814889127858,0,0,0,0.6070041080177537],"outputs":[1,0,0,0,1,0],"biases":[-0.3976101588480122,-0.046437391819947715,0.13117365439337902,0.32353931754268467,-0.23837540951956443,0.4140361522567791],"weights":[[-0.5695351815375503,0.26978186558883666,-0.4376591925512527,0.10465400973365854,0.07085083510698548,-0.4767930894408794],[-0.29022761528698093,0.40202550428547235,0.12418361219784672,-0.06824834143337453,0.02377842168336569,0.0735304348188246],[-0.4043297847829645,-0.1600953742065626,-0.13050456880667952,0.21212422986783622,-0.2712159515867281,0.8489857545728698],[0.08620090578592421,-0.1800141884158304,-0.13205699782487668,0.010217189086934392,0.21142578940748152,-0.4395878258168453],[0.15300767253851044,-0.42461186136871215,0.0701495627036286,-0.11842107146404707,-0.19790299871991093,0.27416031885129644]]},{"inputs":[1,0,0,0,1,0],"outputs":[1,1,0,1],"biases":[-0.056779559414863234,0.04061748874594823,0.26609738702562885,0.05641547757129024],"weights":[[-0.06839718085000385,0.2313034280901597,-0.11006271285549012,0.05719665538004515,0.4743054182281899,0.09583780012304123],[0.11529887299484429,-0.24552165608626159,0.22607799059601255,-0.11644708451800452,-0.24084892145868683,-0.0518611055319615],[0.13176645988845664,0.08863150410097838,0.17594757654502485,-0.36814165996898485,-0.37013821258351687,0.15070538815205947],[-0.0790821960547611,-0.14165758983946702,0.022088001324865825,0.4308907261015702,-0.07179345894338982,0.1944995192044691],[0.14046435967379656,0.1581475200211611,0.22880839247789742,0.05915761436005598,-0.2724844165066116,0.15683526479989618],[0.20546048328610955,-0.19581206902351245,0.04128307272720039,-0.3326088611229273,0.021103033599574356,0.36755707470822674]]}]}