{"levels":[{"inputs":[0.07262131409553874,0,0,0,0.2303224110567471],"outputs":[1,1,1,0,0,1],"biases":[-0.08828753476184481,-0.18688551653967683,-0.06124891032754279,0.21017864787826393,0.1386761597810596,-0.12818797076065713],"weights":[[0.01029002229408399,0.16674180115672266,0.171448944338605,-0.17083783568875185,0.16211992728730418,0.8459843628229167],[-0.018457947176570372,-0.010484921054780785,0.16266862994419606,0.022316969167950007,0.14361698433926193,0.6801934961753326],[-0.1754297243627432,-0.2741881330101839,-0.23117156206228615,-0.12135565516023684,0.3828225437232671,-0.4448856001922574],[0.14967156181434954,-0.002713296235150625,-0.24659598368648708,0.047497194451138314,0.342289122806935,-0.9192842876655754],[0.24221749849642094,0.2917879162545427,0.06405565613322603,0.06486069486819054,-0.370910029723719,-0.6583291554548785]]},{"inputs":[1,1,1,0,0,1],"outputs":[1,1,1,0],"biases":[-0.05492914503802321,0.10717414651821391,-0.06974563339623262,0.43893807696351095],"weights":[[-0.16862607510918443,0.2426964115492941,-0.3498558459706122,-0.09355010676441164,0.05030666696142659,0.2555803152132963],[0.035571593250383504,0.08539451619368026,-0.09470892251797283,-0.2659812459119065,-0.30858356414414456,0.09203733225098569],[0.19959860317657538,-0.16030702008571768,0.28099037585605635,-0.2036388854336315,0.21828561645963573,-0.284612029685005],[-0.020366234985242926,0.1462510578737831,-0.07010565811865067,0.16439881460084954,0.029674141944343257,0.03970968065237113],[0.12115876421555768,-0.011095746638171453,0.30080713215691623,0.026369918671560626,0.00802832890141128,0.0007115333643267288],[0.008849869981607417,-0.058146310537540546,0.28162927921747793,0.5321655232424061,-0.14062208372571683,0.061403328146246675]]}]}